tree
version=v4
num_class=1
num_tree_per_iteration=1
label_index=0
max_feature_idx=5
objective=regression
feature_names=distance payload wind_speed wind_angle temperature humidity
feature_infos=[291.91000000000003:5536.5299999999997] [0:10] [0:45] [0:179.40268493667725] [0:99] [0:38]
tree_sizes=560 588 709 865 606 606 584 586 1021 674 684 418 509 693 507 602 702 700 597 606 431 422 417 506 417 423 508 509 424 422 522 520 521 521 415 519 518 423 432 432 337 337 320 414 318 432 432 523 333 505 504 332 432 334 526 527 528 422 335 420 421 334 420 434 426 508 433 419 422 334 426 426 335 399 399 438 523 526 421 422 420 427 426 433 522 434 522 323 411 324 338 427 339 331 332 333 334 334 332 334 336 336 324 322 325 333 334 331 335 333 333 336 340 339 322 322 321 423 423 423 334 336

Tree=0
num_leaves=5
num_cat=0
split_feature=0 0 4 3
split_gain=1.46361 0.0912515 0.0211081 0.0114637
threshold=1388.1700000000003 3139.2650000000003 45.500000000000007 115.32995451020103
decision_type=2 2 2 2
left_child=-1 2 -2 -4
right_child=1 -3 3 -5
leaf_value=0.32428770577591459 0.32901542016968244 0.33079158017979843 0.32856054956508057 0.32822689316089376
leaf_weight=80 78 17 350 147
leaf_count=80 78 17 350 147
internal_value=0.328093 0.32861 0.328542 0.328465
internal_weight=672 592 575 497
internal_count=672 592 575 497
is_linear=0
shrinkage=1


Tree=1
num_leaves=5
num_cat=0
split_feature=0 0 4 3
split_gain=1.37732 0.0858113 0.0198078 0.0107471
threshold=1388.1700000000003 3139.2650000000003 45.500000000000007 115.32995451020103
decision_type=2 2 2 2
left_child=-1 2 -2 -4
right_child=1 -3 3 -5
leaf_value=-0.0036616383426864019 0.00092433375136092698 0.0026474306551887055 0.00048309307705394545 0.00015944588121038784
leaf_weight=80 78 17 350 147
leaf_count=80 78 17 350 147
internal_value=2.93461e-05 0.000530928 0.00046552 0.00039041
internal_weight=672 592 575 497
internal_count=672 592 575 497
is_linear=0
shrinkage=0.03


Tree=2
num_leaves=6
num_cat=0
split_feature=1 0 0 0 0
split_gain=1.32897 0.759863 0.033524 0.012622 0.0123019
threshold=3.9500000000000006 1388.1700000000003 3137.1050000000005 2906.4700000000007 2795.9550000000004
decision_type=2 2 2 2 2
left_child=1 -1 4 -3 -2
right_child=2 3 -4 -5 -6
leaf_value=-0.0035791095699888248 0.00083375148920719806 -0.00056864409228532238 0.0034212281575826836 -0.00018904758650313972 0.0019329995187790591
leaf_weight=78 14.999999999999998 130 15.999999999999998 250 183
leaf_count=78 15 130 16 250 183
internal_value=2.86009e-05 -0.000881068 0.00198222 -0.000322914 0.00185753
internal_weight=672 458 214 380 198
internal_count=672 458 214 380 198
is_linear=0
shrinkage=0.03


Tree=3
num_leaves=8
num_cat=0
split_feature=1 5 3 4 5 3 1
split_gain=1.27234 0.0552611 0.0255952 0.0204755 0.02006 0.0194189 0.0162951
threshold=3.9500000000000006 23.500000000000004 89.188115131966541 59.500000000000007 33.500000000000007 104.80488888462956 6.4500000000000011
decision_type=2 2 2 2 2 2 2
left_child=1 -1 -3 -4 6 -5 -2
right_child=4 2 3 5 -6 -7 -8
leaf_value=-0.00027011061375829533 0.0015269282486434035 -0.00081455061560723331 -0.0006980595549932006 -0.0027106479255241209 0.0026895274919363373 -0.0013998426568395286 0.0022284813763200034
leaf_weight=110 120 192 38 14.999999999999998 34 96 62
leaf_count=110 120 192 38 15 34 96 62
internal_value=3.10202e-05 -0.000873454 -0.00106361 -0.00137411 0.00192624 -0.00159163 0.0017747
internal_weight=667 451 341 149 216 111 182
internal_count=667 451 341 149 216 111 182
is_linear=0
shrinkage=0.03


Tree=4
num_leaves=5
num_cat=0
split_feature=0 1 0 0
split_gain=1.21928 0.743756 0.0322588 0.0110482
threshold=1388.1700000000003 3.4500000000000006 3137.1050000000005 2908.2250000000008
decision_type=2 2 2 2
left_child=-1 3 -3 -2
right_child=1 2 -4 -5
leaf_value=-0.0034409490567419692 -0.00053885602796622937 0.001779606661299962 0.0033575759615216932 -0.0001801241316168587
leaf_weight=80 131 203 14.999999999999998 238
leaf_count=80 131 203 15 238
internal_value=2.98884e-05 0.000505724 0.00189581 -0.000311599
internal_weight=667 587 218 369
internal_count=667 587 218 369
is_linear=0
shrinkage=0.03


Tree=5
num_leaves=5
num_cat=0
split_feature=0 1 0 0
split_gain=1.14722 0.700088 0.0301836 0.0103653
threshold=1388.1700000000003 3.4500000000000006 3137.1050000000005 2908.2250000000008
decision_type=2 2 2 2
left_child=-1 3 -3 -2
right_child=1 2 -4 -5
leaf_value=-0.0033377850197167189 -0.0005226965088987825 0.0017262316411439068 0.0032571834140144706 -0.00017472153659437551
leaf_weight=80 131 203 14.999999999999998 238
leaf_count=80 131 203 15 238
internal_value=2.8859e-05 0.000490487 0.00183917 -0.000302376
internal_weight=667 587 218 369
internal_count=667 587 218 369
is_linear=0
shrinkage=0.03


Tree=6
num_leaves=5
num_cat=0
split_feature=0 1 1 0
split_gain=1.13623 0.61092 0.0156844 0.0114418
threshold=1388.1700000000003 1.0000000180025095e-35 4.4500000000000011 2911.1000000000008
decision_type=2 2 2 2
left_child=-1 3 -3 -2
right_child=1 2 -4 -5
leaf_value=-0.0032342593942159487 -0.00051012988623188379 0.0010038738157846329 0.001822818339101811 -0.00014604469167676948
leaf_weight=85 142 34 190 208
leaf_count=85 142 34 190 208
internal_value=0 0.000481247 0.00170546 -0.000298096
internal_weight=659 574 224 350
internal_count=659 574 224 350
is_linear=0
shrinkage=0.03


Tree=7
num_leaves=5
num_cat=0
split_feature=0 1 1 0
split_gain=1.06907 0.575068 0.0145904 0.010737
threshold=1388.1700000000003 1.0000000180025095e-35 4.4500000000000011 2911.1000000000008
decision_type=2 2 2 2
left_child=-1 3 -3 -2
right_child=1 2 -4 -5
leaf_value=-0.0031372886712168467 -0.00049483136911930591 0.00097380183243278887 0.0017681481592039608 -0.00014166439451490781
leaf_weight=85 142 34 190 208
leaf_count=85 142 34 190 208
internal_value=0 0.000466737 0.00165452 -0.000289285
internal_weight=659 574 224 350
internal_count=659 574 224 350
is_linear=0
shrinkage=0.03


Tree=8
num_leaves=10
num_cat=0
split_feature=1 5 1 4 4 4 3 3 3
split_gain=0.916011 0.0329889 0.0208083 0.0182064 0.0269358 0.0225637 0.0116813 0.0110312 0.0109489
threshold=1.0000000180025095e-35 24.500000000000004 4.4500000000000011 75.500000000000014 69.500000000000014 85.500000000000014 89.188115131966541 104.02451829655119 153.93853658563884
decision_type=2 2 2 2 2 2 2 2 2
left_child=1 -1 -2 4 6 -5 -3 -8 -9
right_child=2 3 -4 5 -6 -7 7 8 -10
leaf_value=-0.00036334631318535071 0.00078489388723176152 -0.0007424238220327744 0.0016747137970336901 -0.0019440559321297296 -0.00013173659157936086 -0.00062970735932702351 -0.00197558281659857 -0.00077957784963321138 -0.0016997814848311154
leaf_weight=119 35 110 192 38 44 23 20 57 21
leaf_count=119 35 110 192 38 44 23 20 57 21
internal_value=0 -0.0008092 0.00154433 -0.000973833 -0.000846548 -0.00147397 -0.000990481 -0.00125309 -0.00104747
internal_weight=659 432 227 313 252 61 208 98 78
internal_count=659 432 227 313 252 61 208 98 78
is_linear=0
shrinkage=0.03


Tree=9
num_leaves=6
num_cat=0
split_feature=0 0 0 0 0
split_gain=0.998989 0.0325454 0.0125198 0.0415333 0.024158
threshold=2784.1750000000006 3135.6750000000006 2877.1150000000002 2905.5400000000004 2822.8800000000006
decision_type=2 2 2 2 2
left_child=-1 2 4 -4 -2
right_child=1 -3 3 -5 -6
leaf_value=-0.0030413133339591758 0.0002073165610591659 0.0012593997425679893 -0.0003095535323990309 0.00043774929471525602 0.0010999535450119844
leaf_weight=85 61 42 81 338 58
leaf_count=85 61 42 81 338 58
internal_value=-2.71427e-06 0.000440235 0.000373387 0.000289683 0.000655262
internal_weight=665 580 538 419 119
internal_count=665 580 538 419 119
is_linear=0
shrinkage=0.03


Tree=10
num_leaves=6
num_cat=0
split_feature=1 5 4 5 4
split_gain=0.857741 0.0432649 0.0193514 0.0131013 0.0130222
threshold=3.9500000000000006 23.500000000000004 75.500000000000014 33.500000000000007 69.500000000000014
decision_type=2 2 2 2 2
left_child=1 -1 4 -2 -3
right_child=3 2 -4 -5 -6
leaf_value=-0.00022120507491273981 0.001433388829351306 -0.0008950109307703601 -0.0014077149260398579 0.0021861796176722661 -0.00031159246300600731
leaf_weight=114 178 221 66 35 51
leaf_count=114 178 221 66 35 51
internal_value=-2.43064e-06 -0.000744291 -0.000916221 0.00156461 -0.000791211
internal_weight=665 452 338 213 272
internal_count=665 452 338 213 272
is_linear=0
shrinkage=0.03


Tree=11
num_leaves=3
num_cat=0
split_feature=0 1
split_gain=0.92125 0.474399
threshold=2784.1750000000006 3.1500000000000008
decision_type=2 2
left_child=-1 -2
right_child=1 -3
leaf_value=-0.0029204892460421069 -0.00024674726096307099 0.0015171698506249948
leaf_weight=85 359 221
leaf_count=85 359 221
internal_value=-2.42361e-06 0.000422853
internal_weight=665 580
internal_count=665 580
is_linear=0
shrinkage=0.03


Tree=12
num_leaves=4
num_cat=0
split_feature=0 1 0
split_gain=0.908429 0.466061 0.0284278
threshold=1388.1700000000003 3.4500000000000006 3137.1050000000005
decision_type=2 2 2
left_child=-1 -2 -3
right_child=1 2 -4
leaf_value=-0.0027728760747936093 -0.00020947648714725935 0.0014129200784923405 0.0028812232259599075
leaf_weight=92 378 207 14.999999999999998
leaf_count=92 378 207 15
internal_value=0 0.000427823 0.00151951
internal_weight=692 600 222
internal_count=692 600 222
is_linear=0
shrinkage=0.03


Tree=13
num_leaves=6
num_cat=0
split_feature=1 5 3 5 1
split_gain=0.75604 0.0294862 0.0244838 0.0215995 0.0165029
threshold=3.9500000000000006 27.500000000000004 74.820430306289225 33.500000000000007 1.0000000180025095e-35
decision_type=2 2 2 2 2
left_child=1 4 -3 -2 -1
right_child=3 2 -4 -5 -6
leaf_value=-0.00045695455759178891 0.001305381680909484 -0.00058873327353031063 -0.001181504234552753 0.0021964144450967588 0.00053837568310408101
leaf_weight=176 183 150 132 36 14.999999999999998
leaf_count=176 183 150 132 36 15
internal_value=0 -0.000672659 -0.000871679 0.00145917 -0.000370815
internal_weight=692 473 282 219 191
internal_count=692 473 282 219 191
is_linear=0
shrinkage=0.03


Tree=14
num_leaves=4
num_cat=0
split_feature=0 1 0
split_gain=0.838456 0.407022 0.0267806
threshold=1388.1700000000003 3.4500000000000006 3137.1050000000005
decision_type=2 2 2
left_child=-1 -2 -3
right_child=1 2 -4
leaf_value=-0.0026639798718227888 -0.00018433259315896438 0.0013275568475028055 0.002752490091908017
leaf_weight=92 378 207 14.999999999999998
leaf_count=92 378 207 15
internal_value=0 0.00041098 0.00143119
internal_weight=692 600 222
internal_count=692 600 222
is_linear=0
shrinkage=0.03


Tree=15
num_leaves=5
num_cat=0
split_feature=1 5 5 3
split_gain=0.676314 0.0210711 0.0205486 0.0183693
threshold=1.0000000180025095e-35 24.500000000000004 33.500000000000007 90.380944016927643
decision_type=2 2 2 2
left_child=1 -1 -2 -3
right_child=2 3 -4 -5
leaf_value=-0.00033241911069931953 0.0011741466995924088 -0.00059830090488960385 0.0020642480432265828 -0.0010853908092487874
leaf_weight=131 201 192 33 137
leaf_count=131 201 192 33 137
internal_value=-4.22798e-06 -0.000674318 0.0013065 -0.000805824
internal_weight=694 460 234 329
internal_count=694 460 234 329
is_linear=0
shrinkage=0.03


Tree=16
num_leaves=6
num_cat=0
split_feature=0 1 0 0 0
split_gain=0.722851 0.362857 0.0307292 0.0113802 0.0124523
threshold=1388.1700000000003 1.0000000180025095e-35 3137.1050000000005 2906.4700000000007 2930.1750000000006
decision_type=2 2 2 2 2
left_child=-1 3 -3 -2 -5
right_child=1 2 -4 4 -6
leaf_value=-0.0025461729688274798 -0.00044014301057529633 0.0011916651937154165 0.0026904728934416342 0.00020039938678059519 -0.00024460491969591024
leaf_weight=88 131 217 14.999999999999998 85 158
leaf_count=88 131 217 15 85 158
internal_value=-4.0985e-06 0.000362752 0.00129559 -0.000211995 -8.27642e-05
internal_weight=694 606 232 374 243
internal_count=694 606 232 374 243
is_linear=0
shrinkage=0.03


Tree=17
num_leaves=6
num_cat=0
split_feature=0 1 0 0 0
split_gain=0.680156 0.341551 0.0287992 0.0106999 0.0117247
threshold=1388.1700000000003 1.0000000180025095e-35 3137.1050000000005 2906.4700000000007 2930.1750000000006
decision_type=2 2 2 2 2
left_child=-1 3 -3 -2 -5
right_child=1 2 -4 4 -6
leaf_value=-0.002469831153217329 -0.00042694375800283779 0.0011559234651831525 0.0026100268360982302 0.0001943909314058013 -0.0002372690989220163
leaf_weight=88 131 217 14.999999999999998 85 158
leaf_count=88 131 217 15 85 158
internal_value=-3.90887e-06 0.000351878 0.00125695 -0.000205637 -8.00964e-05
internal_weight=694 606 232 374 243
internal_count=694 606 232 374 243
is_linear=0
shrinkage=0.03


Tree=18
num_leaves=5
num_cat=0
split_feature=1 5 1 5
split_gain=0.549049 0.0230579 0.0146429 0.0130809
threshold=1.0000000180025095e-35 33.500000000000007 6.4500000000000011 27.500000000000004
decision_type=2 2 2 2
left_child=3 2 -2 -1
right_child=1 -3 -4 -5
leaf_value=-0.0004229476074502487 0.00083662766576263496 0.0020034578148145445 0.0014753436111240247 -0.0007785476617783823
leaf_weight=176 134 30 57 283
leaf_count=176 134 30 57 283
internal_value=-5.19162e-05 0.00117404 0.00103543 -0.000645524
internal_weight=680 221 191 459
internal_count=680 221 191 459
is_linear=0
shrinkage=0.03


Tree=19
num_leaves=5
num_cat=0
split_feature=0 1 0 1
split_gain=0.625899 0.306182 0.0257162 0.01829
threshold=1388.1700000000003 1.0000000180025095e-35 3136.5850000000005 6.0500000000000007
decision_type=2 2 2 2
left_child=-1 -2 3 -3
right_child=1 2 -4 -5
leaf_value=-0.002427560042489335 -0.00022018101438904024 0.00080285416954749831 0.0024273076147781074 0.0014335307498261002
leaf_weight=87 375 114 15.999999999999998 88
leaf_count=87 375 114 16 88
internal_value=-5.02195e-05 0.00029621 0.00119122 0.00108532
internal_weight=680 593 218 202
internal_count=680 593 218 202
is_linear=0
shrinkage=0.03


Tree=20
num_leaves=3
num_cat=0
split_feature=0 0
split_gain=0.58897 0.0462814
threshold=1388.1700000000003 3139.4000000000005
decision_type=2 2
left_child=-1 -2
right_child=1 -3
leaf_value=-0.0023547750732838459 0.0002402053374744618 0.0018902463238755951
leaf_weight=87 577 15.999999999999998
leaf_count=87 577 16
internal_value=-4.85762e-05 0.000287411
internal_weight=680 593
internal_count=680 593
is_linear=0
shrinkage=0.03


Tree=21
num_leaves=3
num_cat=0
split_feature=0 1
split_gain=0.528483 0.257696
threshold=1123.1600000000001 1.0000000180025095e-35
decision_type=2 2
left_child=-1 -2
right_child=1 -3
leaf_value=-0.0023456463949567468 -0.00017136324712181092 0.0011169891838418355
leaf_weight=76 370 223
leaf_count=76 370 223
internal_value=6.49437e-06 0.000310651
internal_weight=669 593
internal_count=669 593
is_linear=0
shrinkage=0.03


Tree=22
num_leaves=3
num_cat=0
split_feature=0 0
split_gain=0.497502 0.0164049
threshold=1388.1700000000003 3136.5850000000005
decision_type=2 2
left_child=-1 -2
right_child=1 -3
leaf_value=-0.0022426619963967442 0.00026346101566135502 0.00097240410741467379
leaf_weight=78 558 33
leaf_count=78 558 33
internal_value=6.16188e-06 0.000305663
internal_weight=669 591
internal_count=669 591
is_linear=0
shrinkage=0.03


Tree=23
num_leaves=4
num_cat=0
split_feature=1 4 5
split_gain=0.411409 0.013373 0.0102626
threshold=3.9500000000000006 75.500000000000014 31.500000000000004
decision_type=2 2 2
left_child=1 -1 -2
right_child=2 -3 -4
leaf_value=-0.00040499641636153777 0.00096762534618220221 -0.00084060140715648622 0.0015402688335875428
leaf_weight=373 157 88 51
leaf_count=373 157 88 51
internal_value=5.97477e-06 -0.000491484 0.00111558
internal_weight=669 461 208
internal_count=669 461 208
is_linear=0
shrinkage=0.03


Tree=24
num_leaves=3
num_cat=0
split_feature=0 1
split_gain=0.426614 0.236774
threshold=1123.1600000000001 3.3500000000000001
decision_type=2 2
left_child=-1 -2
right_child=1 -3
leaf_value=-0.0021609604217003486 -0.00016573609431331073 0.0010816492608671038
leaf_weight=72 376 214
leaf_count=72 376 214
internal_value=1.5867e-05 0.000284217
internal_weight=662 590
internal_count=662 590
is_linear=0
shrinkage=0.03


Tree=25
num_leaves=3
num_cat=0
split_feature=1 5
split_gain=0.357293 0.0131978
threshold=3.9500000000000006 27.500000000000004
decision_type=2 2
left_child=1 -1
right_child=-2 -3
leaf_value=-0.00024285332091050814 0.0010433728432662937 -0.00059198949682057536
leaf_weight=181 209 272
leaf_count=181 209 272
internal_value=1.52523e-05 -0.000455842
internal_weight=662 453
internal_count=662 453
is_linear=0
shrinkage=0.03


Tree=26
num_leaves=4
num_cat=0
split_feature=0 1 1
split_gain=0.395405 0.207488 0.0101922
threshold=1388.1700000000003 1.0000000180025095e-35 6.3500000000000005
decision_type=2 2 2
left_child=-1 -2 -3
right_child=1 2 -4
leaf_value=-0.0020333607316136279 -0.00015889152604957053 0.00081333776912036833 0.0012973553705893229
leaf_weight=75 364 140 83
leaf_count=75 364 140 83
internal_value=1.46592e-05 0.000279037 0.00100046
internal_weight=662 587 223
internal_count=662 587 223
is_linear=0
shrinkage=0.03


Tree=27
num_leaves=4
num_cat=0
split_feature=0 1 1
split_gain=0.402763 0.196225 0.010223
threshold=1388.1700000000003 1.0000000180025095e-35 6.4500000000000011
decision_type=2 2 2
left_child=-1 -2 -3
right_child=1 2 -4
leaf_value=-0.0019580157989373456 -0.00016748508286529989 0.00079143225621801762 0.0012880148667949436
leaf_weight=84 362 154 72
leaf_count=84 362 154 72
internal_value=-1.33734e-05 0.000262025 0.000956521
internal_weight=672 588 226
internal_count=672 588 226
is_linear=0
shrinkage=0.03


Tree=28
num_leaves=3
num_cat=0
split_feature=0 1
split_gain=0.378975 0.184726
threshold=1388.1700000000003 1.0000000180025095e-35
decision_type=2 2
left_child=-1 -2
right_child=1 -3
leaf_value=-0.0018993102535295177 -0.00016246122374892453 0.00092803840021625668
leaf_weight=84 362 226
leaf_count=84 362 226
internal_value=-1.29053e-05 0.000254169
internal_weight=672 588
internal_count=672 588
is_linear=0
shrinkage=0.03


Tree=29
num_leaves=3
num_cat=0
split_feature=0 1
split_gain=0.356565 0.173836
threshold=1388.1700000000003 1.0000000180025095e-35
decision_type=2 2
left_child=-1 -2
right_child=1 -3
leaf_value=-0.00184236484695534 -0.00015758806117982334 0.00090020340592949577
leaf_weight=84 362 226
leaf_count=84 362 226
internal_value=-1.25207e-05 0.000246469
internal_weight=672 588
internal_count=672 588
is_linear=0
shrinkage=0.03


Tree=30
num_leaves=4
num_cat=0
split_feature=0 1 0
split_gain=0.374697 0.183473 0.0169582
threshold=1388.1700000000003 3.9500000000000006 3137.1050000000005
decision_type=2 2 2
left_child=-1 -2 -3
right_child=1 2 -4
leaf_value=-0.0018240106684155241 -0.00012487108025261047 0.00087468313674651072 0.0019813872408992218
leaf_weight=89 389 199 15.999999999999998
leaf_count=89 389 199 16
internal_value=-5.19775e-06 0.000260452 0.000964459
internal_weight=693 604 215
internal_count=693 604 215
is_linear=0
shrinkage=0.03


Tree=31
num_leaves=4
num_cat=0
split_feature=0 1 0
split_gain=0.352566 0.17273 0.0158687
threshold=1388.1700000000003 3.9500000000000006 3137.1050000000005
decision_type=2 2 2
left_child=-1 -2 -3
right_child=1 2 -4
leaf_value=-0.0017693210895613029 -0.00012112542876381108 0.0008484492367558102 0.0019221307902170393
leaf_weight=89 389 199 15.999999999999998
leaf_count=89 389 199 16
internal_value=-4.97492e-06 0.000252645 0.000935755
internal_weight=693 604 215
internal_count=693 604 215
is_linear=0
shrinkage=0.03


Tree=32
num_leaves=4
num_cat=0
split_feature=0 1 0
split_gain=0.331743 0.162619 0.014846
threshold=1388.1700000000003 3.9500000000000006 3137.1050000000005
decision_type=2 2 2
left_child=-1 -2 -3
right_child=1 2 -4
leaf_value=-0.0017162712331043409 -0.00011749213311507894 0.00082300215065949495 0.0018646465062607668
leaf_weight=89 389 199 15.999999999999998
leaf_count=89 389 199 16
internal_value=-4.75884e-06 0.000245072 0.000907911
internal_weight=693 604 215
internal_count=693 604 215
is_linear=0
shrinkage=0.03


Tree=33
num_leaves=4
num_cat=0
split_feature=0 1 0
split_gain=0.286621 0.156367 0.0177317
threshold=1388.1700000000003 3.4500000000000006 3137.1050000000005
decision_type=2 2 2
left_child=-1 -2 -3
right_child=1 2 -4
leaf_value=-0.0016540926844370249 -0.00010987045635608697 0.00080283876740717464 0.0019555872320305813
leaf_weight=80 381 208 14.999999999999998
leaf_count=80 381 208 15
internal_value=3.02404e-05 0.000255933 0.000887524
internal_weight=684 604 223
internal_count=684 604 223
is_linear=0
shrinkage=0.03


Tree=34
num_leaves=3
num_cat=0
split_feature=0 0
split_gain=0.269696 0.0354667
threshold=1388.1700000000003 3139.2650000000003
decision_type=2 2
left_child=-1 -2
right_child=1 -3
leaf_value=-0.0016045009166346649 0.00020494889887626733 0.001570739467504387
leaf_weight=80 586 18
leaf_count=80 586 18
internal_value=2.92696e-05 0.000248261
internal_weight=684 604
internal_count=684 604
is_linear=0
shrinkage=0.03


Tree=35
num_leaves=4
num_cat=0
split_feature=0 1 0
split_gain=0.253791 0.14681 0.0156022
threshold=1388.1700000000003 3.4500000000000006 3137.1050000000005
decision_type=2 2 2
left_child=-1 -2 -3
right_child=1 2 -4
leaf_value=-0.0015563959372040818 -0.00011347513113870805 0.00077261240425480909 0.001861038965813543
leaf_weight=80 381 208 14.999999999999998
leaf_count=80 381 208 15
internal_value=2.83919e-05 0.000240892 0.000852951
internal_weight=684 604 223
internal_count=684 604 223
is_linear=0
shrinkage=0.03


Tree=36
num_leaves=4
num_cat=0
split_feature=0 1 0
split_gain=0.224599 0.13453 0.0206759
threshold=1388.1700000000003 3.9500000000000006 3136.1850000000004
decision_type=2 2 2
left_child=-1 -2 -3
right_child=1 2 -4
leaf_value=-0.0014373970302416171 -9.881833393981516e-05 0.00074896023393818307 0.0019805862231990724
leaf_weight=83 387 192 14.999999999999998
leaf_count=83 387 192 15
internal_value=2.14492e-05 0.000227924 0.00084591
internal_weight=677 594 207
internal_count=677 594 207
is_linear=0
shrinkage=0.03


Tree=37
num_leaves=3
num_cat=0
split_feature=1 1
split_gain=0.210281 0.0111958
threshold=1.0000000180025095e-35 6.3500000000000005
decision_type=2 2
left_child=-1 -2
right_child=1 -3
leaf_value=-0.00035249280207585597 0.00058298033411631239 0.0010680839445325336
leaf_weight=450 144 83
leaf_count=450 144 83
internal_value=2.07419e-05 0.000767156
internal_weight=677 227
internal_count=677 227
is_linear=0
shrinkage=0.03


Tree=38
num_leaves=3
num_cat=0
split_feature=0 0
split_gain=0.208212 0.0313553
threshold=1388.1700000000003 3139.4000000000005
decision_type=2 2
left_child=-1 -2
right_child=1 -3
leaf_value=-0.0013844085008120149 0.00018091816020342579 0.0015839478350012403
leaf_weight=83 579 14.999999999999998
leaf_count=83 579 15
internal_value=2.01225e-05 0.000219004
internal_weight=677 594
internal_count=677 594
is_linear=0
shrinkage=0.03


Tree=39
num_leaves=3
num_cat=0
split_feature=0 0
split_gain=0.194246 0.0312584
threshold=2784.1750000000006 3139.4000000000005
decision_type=2 2
left_child=-1 -2
right_child=1 -3
leaf_value=-0.0013267170301955965 0.00016789911393182404 0.0015251975642325722
leaf_weight=85 567 15.999999999999998
leaf_count=85 567 16
internal_value=1.02527e-05 0.000207849
internal_weight=668 583
internal_count=668 583
is_linear=0
shrinkage=0.03


Tree=40
num_leaves=2
num_cat=0
split_feature=1
split_gain=0.183553
threshold=1.0000000180025095e-35
decision_type=2
left_child=-1
right_child=-2
leaf_value=-0.00034217459019345053 0.00070981937950445758
leaf_weight=443 225
leaf_count=443 225
internal_value=9.94596e-06
internal_weight=668
internal_count=668
is_linear=0
shrinkage=0.03


Tree=41
num_leaves=2
num_cat=0
split_feature=1
split_gain=0.172708
threshold=1.0000000180025095e-35
decision_type=2
left_child=-1
right_child=-2
leaf_value=-0.00033191051035208474 0.00068852952663839946
leaf_weight=443 225
leaf_count=443 225
internal_value=9.58105e-06
internal_weight=668
internal_count=668
is_linear=0
shrinkage=0.03


Tree=42
num_leaves=2
num_cat=0
split_feature=0
split_gain=0.189381
threshold=1388.1700000000003
decision_type=2
left_child=-1
right_child=-2
leaf_value=-0.0013606854728198991 0.00018368937756284807
leaf_weight=81 604
leaf_count=81 604
internal_value=0
internal_weight=685
internal_count=685
is_linear=0
shrinkage=0.03


Tree=43
num_leaves=3
num_cat=0
split_feature=1 1
split_gain=0.156654 0.0145901
threshold=1.0000000180025095e-35 6.3500000000000005
decision_type=2 2
left_child=-1 -2
right_child=1 -3
leaf_value=-0.00031948892243012332 0.00044561835076773604 0.00098268055241126375
leaf_weight=457 147 81
leaf_count=457 147 81
internal_value=0 0.000643168
internal_weight=685 228
internal_count=685 228
is_linear=0
shrinkage=0.03


Tree=44
num_leaves=2
num_cat=0
split_feature=0
split_gain=0.1758
threshold=984.10500000000013
decision_type=2
left_child=-1
right_child=-2
leaf_value=-0.0013794854193281919 0.00016828413716860302
leaf_weight=74 611
leaf_count=74 611
internal_value=0
internal_weight=685
internal_count=685
is_linear=0
shrinkage=0.03


Tree=45
num_leaves=3
num_cat=0
split_feature=0 0
split_gain=0.170569 0.0272474
threshold=2784.1750000000006 3139.4000000000005
decision_type=2 2
left_child=-1 -2
right_child=1 -3
leaf_value=-0.0012382012026259639 0.00016186005111655719 0.0014701422752713494
leaf_weight=85 584 14.999999999999998
leaf_count=85 584 15
internal_value=1.65938e-05 0.000197246
internal_weight=684 599
internal_count=684 599
is_linear=0
shrinkage=0.03


Tree=46
num_leaves=3
num_cat=0
split_feature=0 0
split_gain=0.160513 0.0256239
threshold=2784.1750000000006 3139.4000000000005
decision_type=2 2
left_child=-1 -2
right_child=1 -3
leaf_value=-0.0012010770060394676 0.00015700466640812102 0.0014261845597947317
leaf_weight=85 584 14.999999999999998
leaf_count=85 584 15
internal_value=1.60969e-05 0.000191407
internal_weight=684 599
internal_count=684 599
is_linear=0
shrinkage=0.03


Tree=47
num_leaves=4
num_cat=0
split_feature=1 0 0
split_gain=0.152911 0.0905441 0.0110551
threshold=3.4500000000000006 2791.4350000000004 3136.6750000000006
decision_type=2 2 2
left_child=1 -1 -2
right_child=2 -3 -4
leaf_value=-0.0011723789524877924 0.00059302587819678098 -8.7828717941387547e-05 0.0014890659963668574
leaf_weight=86 206 376 15.999999999999998
leaf_count=86 206 376 16
internal_value=1.56148e-05 -0.000293066 0.000664681
internal_weight=684 462 222
internal_count=684 462 222
is_linear=0
shrinkage=0.03


Tree=48
num_leaves=2
num_cat=0
split_feature=1
split_gain=0.142299
threshold=4.1500000000000012
decision_type=2
left_child=-1
right_child=-2
leaf_value=-0.00026392734734689811 0.00068095396309075578
leaf_weight=466 207
leaf_count=466 207
internal_value=2.44977e-05
internal_weight=673
internal_count=673
is_linear=0
shrinkage=0.03


Tree=49
num_leaves=4
num_cat=0
split_feature=0 1 0
split_gain=0.138637 0.0837217 0.0122824
threshold=1388.1700000000003 4.1500000000000012 3135.0800000000004
decision_type=2 2 2
left_child=-1 -2 -3
right_child=1 2 -4
leaf_value=-0.0011292943619600271 -7.0422398436952293e-05 0.00058622493930207329 0.0014370774855591039
leaf_weight=82 386 185 20
leaf_count=82 386 185 20
internal_value=2.36968e-05 0.000186292 0.00067688
internal_weight=673 591 205
internal_count=673 591 205
is_linear=0
shrinkage=0.03


Tree=50
num_leaves=4
num_cat=0
split_feature=0 1 0
split_gain=0.130748 0.0805288 0.0115997
threshold=984.10500000000013 4.1500000000000012 3135.6750000000006
decision_type=2 2 2
left_child=-1 -2 -3
right_child=1 2 -4
leaf_value=-0.0011547888056322347 -7.5739882354144828e-05 0.0005683969983464811 0.0014156945451991412
leaf_weight=75 392 187 19
leaf_count=75 392 187 19
internal_value=2.29209e-05 0.000173219 0.00065415
internal_weight=673 598 206
internal_count=673 598 206
is_linear=0
shrinkage=0.03


Tree=51
num_leaves=2
num_cat=0
split_feature=1
split_gain=0.10315
threshold=3.9500000000000006
decision_type=2
left_child=-1
right_child=-2
leaf_value=-0.00023875928035707228 0.00054435000473187752
leaf_weight=466 224
leaf_count=466 224
internal_value=1.33148e-05
internal_weight=690
internal_count=690
is_linear=0
shrinkage=0.03


Tree=52
num_leaves=3
num_cat=0
split_feature=0 0
split_gain=0.126483 0.0172819
threshold=984.10500000000013 3139.4000000000005
decision_type=2 2
left_child=-1 -2
right_child=1 -3
leaf_value=-0.0011059699767268613 0.00013386223935436158 0.0011791264194843552
leaf_weight=80 595 14.999999999999998
leaf_count=80 595 15
internal_value=1.28508e-05 0.000162119
internal_weight=690 610
internal_count=690 610
is_linear=0
shrinkage=0.03


Tree=53
num_leaves=2
num_cat=0
split_feature=1
split_gain=0.0952768
threshold=3.9500000000000006
decision_type=2
left_child=-1
right_child=-2
leaf_value=-0.00022971150522327647 0.00052291455904860589
leaf_weight=466 224
leaf_count=466 224
internal_value=1.24657e-05
internal_weight=690
internal_count=690
is_linear=0
shrinkage=0.03


Tree=54
num_leaves=4
num_cat=0
split_feature=0 1 0
split_gain=0.115097 0.0703242 0.0136187
threshold=984.10500000000013 1.0000000180025095e-35 3136.1850000000004
decision_type=2 2 2
left_child=-1 -2 -3
right_child=1 2 -4
leaf_value=-0.0011025725854989831 -0.00011987817201686864 0.0004717401011992623 0.0014371459791001592
leaf_weight=77 376 211 15.999999999999998
leaf_count=77 376 211 16
internal_value=-8.68534e-06 0.000128591 0.000546694
internal_weight=680 603 227
internal_count=680 603 227
is_linear=0
shrinkage=0.03


Tree=55
num_leaves=4
num_cat=0
split_feature=0 1 0
split_gain=0.108301 0.0662238 0.0127752
threshold=984.10500000000013 1.0000000180025095e-35 3136.5850000000005
decision_type=2 2 2
left_child=-1 -2 -3
right_child=1 2 -4
leaf_value=-0.0010695168717403515 -0.00011628230803214616 0.00045981484670489561 0.0014250670624061477
leaf_weight=77 376 212 14.999999999999998
leaf_count=77 376 212 15
internal_value=-8.35709e-06 0.000124738 0.000530504
internal_weight=680 603 227
internal_count=680 603 227
is_linear=0
shrinkage=0.03


Tree=56
num_leaves=4
num_cat=0
split_feature=0 1 0
split_gain=0.102141 0.0606879 0.0119198
threshold=1388.1700000000003 1.0000000180025095e-35 3136.1850000000004
decision_type=2 2 2
left_child=-1 -2 -3
right_child=1 2 -4
leaf_value=-0.00098256532055600136 -0.00010501756536411876 0.00044577925227822103 0.0013533512792750215
leaf_weight=85 369 210 15.999999999999998
leaf_count=85 369 210 16
internal_value=-8.03866e-06 0.000128729 0.000516953
internal_weight=680 595 226
internal_count=680 595 226
is_linear=0
shrinkage=0.03


Tree=57
num_leaves=3
num_cat=0
split_feature=0 1
split_gain=0.0976868 0.0496196
threshold=914.12000000000012 4.3500000000000005
decision_type=2 2
left_child=-1 -2
right_child=1 -3
leaf_value=-0.0010343992275077094 -6.7063676021636271e-05 0.00051413819471411932
leaf_weight=74 400 195
leaf_count=74 400 195
internal_value=-4.69835e-06 0.000120921
internal_weight=669 595
internal_count=669 595
is_linear=0
shrinkage=0.03


Tree=58
num_leaves=2
num_cat=0
split_feature=1
split_gain=0.0749735
threshold=4.3500000000000005
decision_type=2
left_child=-1
right_child=-2
leaf_value=-0.00021121139210793935 0.00048642458106783399
leaf_weight=473 196
leaf_count=473 196
internal_value=-4.55872e-06
internal_weight=669
internal_count=669
is_linear=0
shrinkage=0.03


Tree=59
num_leaves=3
num_cat=0
split_feature=0 1
split_gain=0.0908515 0.0416074
threshold=1388.1700000000003 4.3500000000000005
decision_type=2 2
left_child=-1 -2
right_child=1 -3
leaf_value=-0.000922575409292544 -4.8326845452255518e-05 0.00048648197838204604
leaf_weight=85 390 194
leaf_count=85 390 194
internal_value=-4.35408e-06 0.00012679
internal_weight=669 584
internal_count=669 584
is_linear=0
shrinkage=0.03


Tree=60
num_leaves=3
num_cat=0
split_feature=0 1
split_gain=0.0782642 0.0461396
threshold=1388.1700000000003 4.3500000000000005
decision_type=2 2
left_child=-1 -2
right_child=1 -3
leaf_value=-0.00085742276571920922 -5.7167292924879987e-05 0.00049669341947499465
leaf_weight=83 403 201
leaf_count=83 403 201
internal_value=3.79881e-06 0.00012469
internal_weight=687 604
internal_count=687 604
is_linear=0
shrinkage=0.03


Tree=61
num_leaves=2
num_cat=0
split_feature=1
split_gain=0.0685165
threshold=4.3500000000000005
decision_type=2
left_child=-1
right_child=-2
leaf_value=-0.00018827071357805595 0.00046822696228039661
leaf_weight=484 203
leaf_count=484 203
internal_value=3.55294e-06
internal_weight=687
internal_count=687
is_linear=0
shrinkage=0.03


Tree=62
num_leaves=3
num_cat=0
split_feature=0 1
split_gain=0.0727373 0.0413613
threshold=984.10500000000013 4.3500000000000005
decision_type=2 2
left_child=-1 -2
right_child=1 -3
leaf_value=-0.00087581627112862939 -5.622578306110476e-05 0.00046576901565516075
leaf_weight=75 410 202
leaf_count=75 410 202
internal_value=3.38147e-06 0.00011364
internal_weight=687 612
internal_count=687 612
is_linear=0
shrinkage=0.03


Tree=63
num_leaves=3
num_cat=0
split_feature=0 0
split_gain=0.0633589 0.0161076
threshold=2791.4350000000004 3139.4000000000005
decision_type=2 2
left_child=-1 -2
right_child=1 -3
leaf_value=-0.00076741713287916682 9.7983915594160073e-05 0.0011047002824759759
leaf_weight=81 586 14.999999999999998
leaf_count=81 586 15
internal_value=1.73742e-05 0.000125695
internal_weight=682 601
internal_count=682 601
is_linear=0
shrinkage=0.03


Tree=64
num_leaves=3
num_cat=0
split_feature=0 1
split_gain=0.0596289 0.0356693
threshold=2791.4350000000004 1.0000000180025095e-35
decision_type=2 2
left_child=-1 -2
right_child=1 -3
leaf_value=-0.00074440882208107238 -5.5157850485950478e-05 0.00041835639992035924
leaf_weight=81 373 228
leaf_count=81 373 228
internal_value=1.68539e-05 0.000122002
internal_weight=682 601
internal_count=682 601
is_linear=0
shrinkage=0.03


Tree=65
num_leaves=4
num_cat=0
split_feature=0 1 0
split_gain=0.0563644 0.0327604 0.0105112
threshold=2798.9700000000007 3.3500000000000001 714.1350000000001
decision_type=2 2 2
left_child=2 -2 -1
right_child=1 -3 -4
leaf_value=-0.0011653145494129127 -2.523205630088827e-05 0.00044691762807219442 -0.00040877276599944476
leaf_weight=25 364 203 90
leaf_count=25 364 203 90
internal_value=1.62155e-05 0.000141188 -0.000586711
internal_weight=682 567 115
internal_count=682 567 115
is_linear=0
shrinkage=0.03


Tree=66
num_leaves=3
num_cat=0
split_feature=0 0
split_gain=0.0683538 0.017845
threshold=2784.1750000000006 3140.0750000000003
decision_type=2 2
left_child=-1 -2
right_child=1 -3
leaf_value=-0.00079241422114124276 8.7833157259041575e-05 0.0011456541249225303
leaf_weight=85 573 14.999999999999998
leaf_count=85 573 15
internal_value=2.67522e-07 0.000117464
internal_weight=673 588
internal_count=673 588
is_linear=0
shrinkage=0.03


Tree=67
num_leaves=3
num_cat=0
split_feature=0 1
split_gain=0.064328 0.030324
threshold=2784.1750000000006 4.3500000000000005
decision_type=2 2
left_child=-1 -2
right_child=1 -3
leaf_value=-0.00076865577227349779 -3.5967951639561481e-05 0.00041695929478106366
leaf_weight=85 390 198
leaf_count=85 390 198
internal_value=2.60479e-07 0.00011402
internal_weight=673 588
internal_count=673 588
is_linear=0
shrinkage=0.03


Tree=68
num_leaves=3
num_cat=0
split_feature=0 1
split_gain=0.0605172 0.0285433
threshold=2784.1750000000006 4.3500000000000005
decision_type=2 2
left_child=-1 -2
right_child=1 -3
leaf_value=-0.00074560965225500895 -3.4889051370025764e-05 0.00040445367426193138
leaf_weight=85 390 198
leaf_count=85 390 198
internal_value=1.18082e-07 0.000110524
internal_weight=673 588
internal_count=673 588
is_linear=0
shrinkage=0.03


Tree=69
num_leaves=2
num_cat=0
split_feature=1
split_gain=0.0451196
threshold=3.9500000000000006
decision_type=2
left_child=-1
right_child=-2
leaf_value=-0.00016213599166405653 0.00036369660686291094
leaf_weight=458 216
leaf_count=458 216
internal_value=4.16922e-06
internal_weight=674
internal_count=674
is_linear=0
shrinkage=0.03


Tree=70
num_leaves=3
num_cat=0
split_feature=0 1
split_gain=0.0541594 0.0248661
threshold=2784.1750000000006 1.0000000180025095e-35
decision_type=2 2
left_child=-1 -2
right_child=1 -3
leaf_value=-0.00068743192642237811 -4.4043899061054356e-05 0.00035252480373345192
leaf_weight=88 354 232
leaf_count=88 354 232
internal_value=3.97783e-06 0.000110417
internal_weight=674 586
internal_count=674 586
is_linear=0
shrinkage=0.03


Tree=71
num_leaves=3
num_cat=0
split_feature=0 1
split_gain=0.0509503 0.0234075
threshold=2784.1750000000006 1.0000000180025095e-35
decision_type=2 2
left_child=-1 -2
right_child=1 -3
leaf_value=-0.00066682068624508326 -4.2722769096397241e-05 0.00034195134142830935
leaf_weight=88 354 232
leaf_count=88 354 232
internal_value=3.72413e-06 0.000107028
internal_weight=674 586
internal_count=674 586
is_linear=0
shrinkage=0.03


Tree=72
num_leaves=2
num_cat=0
split_feature=1
split_gain=0.0430189
threshold=5.9500000000000011
decision_type=2
left_child=-1
right_child=-2
leaf_value=-0.00011059318548337009 0.00053925020987807837
leaf_weight=574 109
leaf_count=574 109
internal_value=-4.65673e-06
internal_weight=683
internal_count=683
is_linear=0
shrinkage=0.03


Tree=73
num_leaves=3
num_cat=0
split_feature=0 1
split_gain=0.0528394 0.0290993
threshold=914.12000000000012 6.3500000000000005
decision_type=2 2
left_child=-1 -2
right_child=1 -3
leaf_value=-0.00074114484781689319 0 0.00059565569590408051
leaf_weight=78 518 87
leaf_count=78 518 87
internal_value=-4.45021e-06 8.81029e-05
internal_weight=683 605
internal_count=683 605
is_linear=0
shrinkage=0.03


Tree=74
num_leaves=3
num_cat=0
split_feature=0 1
split_gain=0.0497277 0.0273722
threshold=914.12000000000012 6.3500000000000005
decision_type=2 2
left_child=-1 -2
right_child=1 -3
leaf_value=-0.00071892474025361417 0 0.00057779628836255876
leaf_weight=78 518 87
leaf_count=78 518 87
internal_value=-4.18725e-06 8.55334e-05
internal_weight=683 605
internal_count=683 605
is_linear=0
shrinkage=0.03


Tree=75
num_leaves=3
num_cat=0
split_feature=0 0
split_gain=0.0434556 0.0131228
threshold=2798.9700000000007 3140.0750000000003
decision_type=2 2
left_child=-1 -2
right_child=1 -3
leaf_value=-0.00050474689040338897 7.4027904496845113e-05 0.00095556831544386987
leaf_weight=131 541 15.999999999999998
leaf_count=131 541 16
internal_value=-1.12745e-05 0.000102127
internal_weight=688 557
internal_count=688 557
is_linear=0
shrinkage=0.03


Tree=76
num_leaves=4
num_cat=0
split_feature=0 1 0
split_gain=0.0409006 0.0175406 0.014689
threshold=2798.9700000000007 6.4500000000000011 3140.0750000000003
decision_type=2 2 2
left_child=-1 2 -2
right_child=1 -3 -4
leaf_value=-0.0004896102602570193 8.0830797871467694e-07 0.00055968718664237008 0.00092699058910953658
leaf_weight=131 475 66 15.999999999999998
leaf_count=131 475 66 16
internal_value=-1.08043e-05 9.91464e-05 3.41354e-05
internal_weight=688 557 491
internal_count=688 557 491
is_linear=0
shrinkage=0.03


Tree=77
num_leaves=4
num_cat=0
split_feature=0 1 0
split_gain=0.039247 0.0193277 0.0176489
threshold=771.23000000000013 6.0500000000000007 3140.0750000000003
decision_type=2 2 2
left_child=-1 2 -2
right_child=1 -3 -4
leaf_value=-0.00077292196377015188 -4.7946606216570925e-05 0.00043139692317298577 0.00099265049824311677
leaf_weight=56 514 103 14.999999999999998
leaf_count=56 514 103 15
internal_value=-1.02818e-05 5.49765e-05 -1.55138e-05
internal_weight=688 632 529
internal_count=688 632 529
is_linear=0
shrinkage=0.03


Tree=78
num_leaves=3
num_cat=0
split_feature=0 1
split_gain=0.0389803 0.0231469
threshold=2800.0700000000002 6.0500000000000007
decision_type=2 2
left_child=-1 -2
right_child=1 -3
leaf_value=-0.0004696325841123551 1.0830949888910128e-05 0.00053127830187853968
leaf_weight=133 458 94
leaf_count=133 458 94
internal_value=-6.65174e-06 0.000102215
internal_weight=685 552
internal_count=685 552
is_linear=0
shrinkage=0.03


Tree=79
num_leaves=3
num_cat=0
split_feature=0 1
split_gain=0.0366887 0.0217697
threshold=2800.0700000000002 6.0500000000000007
decision_type=2 2
left_child=-1 -2
right_child=1 -3
leaf_value=-0.00045554890185400311 1.0506059361282651e-05 0.00051534842399815679
leaf_weight=133 458 94
leaf_count=133 458 94
internal_value=-6.32065e-06 9.92316e-05
internal_weight=685 552
internal_count=685 552
is_linear=0
shrinkage=0.03


Tree=80
num_leaves=3
num_cat=0
split_feature=0 1
split_gain=0.034532 0.0204742
threshold=2800.0700000000002 6.0500000000000007
decision_type=2 2
left_child=-1 -2
right_child=1 -3
leaf_value=-0.00044188756570868998 1.0190910274515299e-05 0.00049989619420060037
leaf_weight=133 458 94
leaf_count=133 458 94
internal_value=-5.9995e-06 9.63376e-05
internal_weight=685 552
internal_count=685 552
is_linear=0
shrinkage=0.03


Tree=81
num_leaves=3
num_cat=0
split_feature=0 1
split_gain=0.0289334 0.0184257
threshold=771.23000000000013 1.0000000180025095e-35
decision_type=2 2
left_child=-1 -2
right_child=1 -3
leaf_value=-0.00067655936260444904 -7.0950133438583672e-05 0.00027019930129575635
leaf_weight=54 401 218
leaf_count=54 401 218
internal_value=-9.07158e-06 4.67852e-05
internal_weight=673 619
internal_count=673 619
is_linear=0
shrinkage=0.03


Tree=82
num_leaves=3
num_cat=0
split_feature=0 1
split_gain=0.0272204 0.0173415
threshold=771.23000000000013 1.0000000180025095e-35
decision_type=2 2
left_child=-1 -2
right_child=1 -3
leaf_value=-0.00065628135451867352 -6.8821896127465985e-05 0.00026209518030871837
leaf_weight=54 401 218
leaf_count=54 401 218
internal_value=-8.8005e-06 4.53095e-05
internal_weight=673 619
internal_count=673 619
is_linear=0
shrinkage=0.03


Tree=83
num_leaves=3
num_cat=0
split_feature=0 0
split_gain=0.025681 0.011591
threshold=745.94000000000017 3139.2650000000003
decision_type=2 2
left_child=-1 -2
right_child=1 -3
leaf_value=-0.00067868733678655608 1.708810725246029e-05 0.00083845733694305692
leaf_weight=48 609 15.999999999999998
leaf_count=48 609 16
internal_value=-8.53752e-06 4.05804e-05
internal_weight=673 625
internal_count=673 625
is_linear=0
shrinkage=0.03


Tree=84
num_leaves=4
num_cat=0
split_feature=0 1 0
split_gain=0.0294606 0.014295 0.0153351
threshold=914.12000000000012 6.3500000000000005 3140.0750000000003
decision_type=2 2 2
left_child=-1 2 -2
right_child=1 -3 -4
leaf_value=-0.00055354787063871232 -1.2615240293854888e-05 0.00044156849335783742 0.00095756049858097933
leaf_weight=76 511 82 14.999999999999998
leaf_count=76 511 82 15
internal_value=8.73688e-07 7.26831e-05 1.22883e-05
internal_weight=684 608 526
internal_count=684 608 526
is_linear=0
shrinkage=0.03


Tree=85
num_leaves=3
num_cat=0
split_feature=0 0
split_gain=0.0277209 0.0124769
threshold=914.12000000000012 3140.0750000000003
decision_type=2 2
left_child=-1 -2
right_child=1 -3
leaf_value=-0.00053695235836629144 4.6186343020224368e-05 0.00092892912844585811
leaf_weight=76 593 14.999999999999998
leaf_count=76 593 15
internal_value=7.83521e-07 7.0506e-05
internal_weight=684 608
internal_count=684 608
is_linear=0
shrinkage=0.03


Tree=86
num_leaves=4
num_cat=0
split_feature=0 1 0
split_gain=0.0260906 0.0135059 0.0136302
threshold=914.12000000000012 6.3500000000000005 3140.0750000000003
decision_type=2 2 2
left_child=-1 2 -2
right_child=1 -3 -4
leaf_value=-0.00052085437380591771 -1.3622272275635799e-05 0.0004269447609428078 0.00090115385532280132
leaf_weight=76 511 82 14.999999999999998
leaf_count=76 511 82 15
internal_value=7.60976e-07 6.84673e-05 9.69623e-06
internal_weight=684 608 526
internal_count=684 608 526
is_linear=0
shrinkage=0.03


Tree=87
num_leaves=2
num_cat=0
split_feature=1
split_gain=0.0187234
threshold=4.0500000000000007
decision_type=2
left_child=-1
right_child=-2
leaf_value=-0.0001027908399559992 0.00023879291818979065
leaf_weight=472 208
leaf_count=472 208
internal_value=0
internal_weight=680
internal_count=680
is_linear=0
shrinkage=0.03


Tree=88
num_leaves=3
num_cat=0
split_feature=0 1
split_gain=0.0242423 0.0102729
threshold=2798.9700000000007 6.4500000000000011
decision_type=2 2
left_child=-1 -2
right_child=1 -3
leaf_value=-0.00038324561986213611 3.3380948069153974e-05 0.00042950688830415323
leaf_weight=121 490 69
leaf_count=121 490 69
internal_value=0 8.49938e-05
internal_weight=680 559
internal_count=680 559
is_linear=0
shrinkage=0.03


Tree=89
num_leaves=2
num_cat=0
split_feature=1
split_gain=0.0170281
threshold=4.0500000000000007
decision_type=2
left_child=-1
right_child=-2
leaf_value=-9.7981560600371323e-05 0.00022776976847480954
leaf_weight=472 208
leaf_count=472 208
internal_value=0
internal_weight=680
internal_count=680
is_linear=0
shrinkage=0.03


Tree=90
num_leaves=2
num_cat=0
split_feature=1
split_gain=0.015942
threshold=1.0000000180025095e-35
decision_type=2
left_child=-1
right_child=-2
leaf_value=-0.00012745839804660674 0.00017343210618111233
leaf_weight=453 242
leaf_count=453 242
internal_value=-2.05248e-05
internal_weight=695
internal_count=695
is_linear=0
shrinkage=0.03


Tree=91
num_leaves=3
num_cat=0
split_feature=0 1
split_gain=0.0227353 0.0101317
threshold=771.23000000000013 1.0000000180025095e-35
decision_type=2 2
left_child=-1 -2
right_child=1 -3
leaf_value=-0.00058950231814106026 -6.0484955018211376e-05 0.00018514233696563688
leaf_weight=58 397 240
leaf_count=58 397 240
internal_value=-1.98442e-05 2.97117e-05
internal_weight=695 637
internal_count=695 637
is_linear=0
shrinkage=0.03


Tree=92
num_leaves=2
num_cat=0
split_feature=1
split_gain=0.0140797
threshold=1.0000000180025095e-35
decision_type=2
left_child=-1
right_child=-2
leaf_value=-0.00011985901912567464 0.00016286911385311476
leaf_weight=453 242
leaf_count=453 242
internal_value=-1.92499e-05
internal_weight=695
internal_count=695
is_linear=0
shrinkage=0.03


Tree=93
num_leaves=2
num_cat=0
split_feature=0
split_gain=0.0226937
threshold=1388.1700000000003
decision_type=2
left_child=-1
right_child=-2
leaf_value=-0.000471045343044437 6.1076561753936875e-05
leaf_weight=82 595
leaf_count=82 595
internal_value=-1.18996e-06
internal_weight=677
internal_count=677
is_linear=0
shrinkage=0.03


Tree=94
num_leaves=2
num_cat=0
split_feature=0
split_gain=0.0213534
threshold=1388.1700000000003
decision_type=2
left_child=-1
right_child=-2
leaf_value=-0.00045692259202740227 5.9244418654534268e-05
leaf_weight=82 595
leaf_count=82 595
internal_value=-1.0887e-06
internal_weight=677
internal_count=677
is_linear=0
shrinkage=0.03


Tree=95
num_leaves=2
num_cat=0
split_feature=0
split_gain=0.0204207
threshold=683.80500000000018
decision_type=2
left_child=-1
right_child=-2
leaf_value=-0.00090102557840497307 2.7016294094961444e-05
leaf_weight=22 655
leaf_count=22 655
internal_value=-9.90459e-07
internal_weight=677
internal_count=677
is_linear=0
shrinkage=0.03


Tree=96
num_leaves=2
num_cat=0
split_feature=1
split_gain=0.0191999
threshold=2.9500000000000006
decision_type=2
left_child=-1
right_child=-2
leaf_value=-0.00010502680232319746 0.00023139270054995591
leaf_weight=433 235
leaf_count=433 235
internal_value=1.10875e-05
internal_weight=668
internal_count=668
is_linear=0
shrinkage=0.03


Tree=97
num_leaves=2
num_cat=0
split_feature=0
split_gain=0.0163617
threshold=2819.1700000000005
decision_type=2
left_child=-1
right_child=-2
leaf_value=-0.00026989557117958191 9.0675380021220094e-05
leaf_weight=144 524
leaf_count=144 524
internal_value=1.06878e-05
internal_weight=668
internal_count=668
is_linear=0
shrinkage=0.03


Tree=98
num_leaves=2
num_cat=0
split_feature=1
split_gain=0.01788
threshold=2.9500000000000006
decision_type=2
left_child=-1
right_child=-2
leaf_value=-0.00010167377524875378 0.00022297526468523698
leaf_weight=433 235
leaf_count=433 235
internal_value=1.02994e-05
internal_weight=668
internal_count=668
is_linear=0
shrinkage=0.03


Tree=99
num_leaves=2
num_cat=0
split_feature=1
split_gain=0.0137729
threshold=4.3500000000000005
decision_type=2
left_child=-1
right_child=-2
leaf_value=-0.0001027573538696884 0.00019857559169439749
leaf_weight=478 190
leaf_count=478 190
internal_value=-1.47951e-05
internal_weight=668
internal_count=668
is_linear=0
shrinkage=0.03


Tree=100
num_leaves=2
num_cat=0
split_feature=0
split_gain=0.0146494
threshold=2798.9700000000007
decision_type=2
left_child=-1
right_child=-2
leaf_value=-0.00030591473694067581 5.1426423190738805e-05
leaf_weight=127 541
leaf_count=127 541
internal_value=-1.42837e-05
internal_weight=668
internal_count=668
is_linear=0
shrinkage=0.03


Tree=101
num_leaves=2
num_cat=0
split_feature=0
split_gain=0.0137853
threshold=2798.9700000000007
decision_type=2
left_child=-1
right_child=-2
leaf_value=-0.00029674090861635331 4.9883770786971599e-05
leaf_weight=127 541
leaf_count=127 541
internal_value=-1.37884e-05
internal_weight=668
internal_count=668
is_linear=0
shrinkage=0.03


Tree=102
num_leaves=2
num_cat=0
split_feature=0
split_gain=0.015912
threshold=2798.9700000000007
decision_type=2
left_child=-1
right_child=-2
leaf_value=-0.00030735228813949864 6.8534371075921243e-05
leaf_weight=124 554
leaf_count=124 554
internal_value=0
internal_weight=678
internal_count=678
is_linear=0
shrinkage=0.03


Tree=103
num_leaves=2
num_cat=0
split_feature=0
split_gain=0.0153411
threshold=671.96000000000015
decision_type=2
left_child=-1
right_child=-2
leaf_value=-0.0008395154796188739 2.4036864884402952e-05
leaf_weight=19 659
leaf_count=19 659
internal_value=0
internal_weight=678
internal_count=678
is_linear=0
shrinkage=0.03


Tree=104
num_leaves=2
num_cat=0
split_feature=0
split_gain=0.0146478
threshold=2798.9700000000007
decision_type=2
left_child=-1
right_child=-2
leaf_value=-0.00029488829699904627 6.5757484038420891e-05
leaf_weight=124 554
leaf_count=124 554
internal_value=0
internal_weight=678
internal_count=678
is_linear=0
shrinkage=0.03


Tree=105
num_leaves=2
num_cat=0
split_feature=0
split_gain=0.0158025
threshold=683.80500000000018
decision_type=2
left_child=-1
right_child=-2
leaf_value=-0.00081581217973468695 1.883354003685389e-05
leaf_weight=21 649
leaf_count=21 649
internal_value=-5.14728e-06
internal_weight=670
internal_count=670
is_linear=0
shrinkage=0.03


Tree=106
num_leaves=2
num_cat=0
split_feature=0
split_gain=0.0148712
threshold=683.80500000000018
decision_type=2
left_child=-1
right_child=-2
leaf_value=-0.00079139593106002093 1.8268575823878422e-05
leaf_weight=21 649
leaf_count=21 649
internal_value=-4.92749e-06
internal_weight=670
internal_count=670
is_linear=0
shrinkage=0.03


Tree=107
num_leaves=2
num_cat=0
split_feature=0
split_gain=0.0141354
threshold=714.1350000000001
decision_type=2
left_child=-1
right_child=-2
leaf_value=-0.000576108995380129 2.6358206517674683e-05
leaf_weight=37 633
leaf_count=37 633
internal_value=-4.71424e-06
internal_weight=670
internal_count=670
is_linear=0
shrinkage=0.03


Tree=108
num_leaves=2
num_cat=0
split_feature=1
split_gain=0.0142074
threshold=4.3500000000000005
decision_type=2
left_child=-1
right_child=-2
leaf_value=-7.4084765201933478e-05 0.00022452596348181595
leaf_weight=477 204
leaf_count=477 204
internal_value=1.31743e-05
internal_weight=681
internal_count=681
is_linear=0
shrinkage=0.03


Tree=109
num_leaves=2
num_cat=0
split_feature=0
split_gain=0.0136049
threshold=771.23000000000013
decision_type=2
left_child=-1
right_child=-2
leaf_value=-0.00042778558161710612 5.5385959505544861e-05
leaf_weight=57 624
leaf_count=57 624
internal_value=1.27134e-05
internal_weight=681
internal_count=681
is_linear=0
shrinkage=0.03


Tree=110
num_leaves=2
num_cat=0
split_feature=1
split_gain=0.0132181
threshold=4.3500000000000005
decision_type=2
left_child=-1
right_child=-2
leaf_value=-7.1822300768303076e-05 0.000216201702963218
leaf_weight=477 204
leaf_count=477 204
internal_value=1.22651e-05
internal_weight=681
internal_count=681
is_linear=0
shrinkage=0.03


Tree=111
num_leaves=2
num_cat=0
split_feature=0
split_gain=0.0108649
threshold=2819.1700000000005
decision_type=2
left_child=-1
right_child=-2
leaf_value=-0.00024040421809304465 5.5939916864364698e-05
leaf_weight=140 540
leaf_count=140 540
internal_value=-2.87958e-06
internal_weight=680
internal_count=680
is_linear=0
shrinkage=0.03


Tree=112
num_leaves=2
num_cat=0
split_feature=1
split_gain=0.0126302
threshold=1.0000000180025095e-35
decision_type=2
left_child=-1
right_child=-2
leaf_value=-9.8839304836031844e-05 0.00017287234049593526
leaf_weight=445 235
leaf_count=445 235
internal_value=-2.72743e-06
internal_weight=680
internal_count=680
is_linear=0
shrinkage=0.03


Tree=113
num_leaves=2
num_cat=0
split_feature=1
split_gain=0.0118841
threshold=1.0000000180025095e-35
decision_type=2
left_child=-1
right_child=-2
leaf_value=-9.587445824355562e-05 0.00016768727194995992
leaf_weight=445 235
leaf_count=445 235
internal_value=-2.57927e-06
internal_weight=680
internal_count=680
is_linear=0
shrinkage=0.03


Tree=114
num_leaves=2
num_cat=0
split_feature=0
split_gain=0.0114973
threshold=714.1350000000001
decision_type=2
left_child=-1
right_child=-2
leaf_value=-0.00055231501695201634 2.9789180410961793e-05
leaf_weight=32 643
leaf_count=32 643
internal_value=0
internal_weight=675
internal_count=675
is_linear=0
shrinkage=0.03


Tree=115
num_leaves=2
num_cat=0
split_feature=0
split_gain=0.0108711
threshold=771.23000000000013
decision_type=2
left_child=-1
right_child=-2
leaf_value=-0.00039793258302958878 3.830699840017011e-05
leaf_weight=56 619
leaf_count=56 619
internal_value=0
internal_weight=675
internal_count=675
is_linear=0
shrinkage=0.03


Tree=116
num_leaves=2
num_cat=0
split_feature=0
split_gain=0.010342
threshold=714.1350000000001
decision_type=2
left_child=-1
right_child=-2
leaf_value=-0.00052385206088068125 2.8234895928830603e-05
leaf_weight=32 643
leaf_count=32 643
internal_value=0
internal_weight=675
internal_count=675
is_linear=0
shrinkage=0.03


Tree=117
num_leaves=3
num_cat=0
split_feature=0 0
split_gain=0.0122126 0.0115178
threshold=2905.5400000000004 2934.0100000000007
decision_type=2 2
left_child=-1 -2
right_child=1 -3
leaf_value=-0.00014075459610662981 0.0003696964245452216 2.5262233244126448e-06
leaf_weight=298 113 267
leaf_count=298 113 267
internal_value=7.62335e-07 0.000115692
internal_weight=678 380
internal_count=678 380
is_linear=0
shrinkage=0.03


Tree=118
num_leaves=3
num_cat=0
split_feature=0 0
split_gain=0.0115023 0.0108262
threshold=2905.5400000000004 2934.0100000000007
decision_type=2 2
left_child=-1 -2
right_child=1 -3
leaf_value=-0.0001365326644133613 0.00035861043036711053 2.4504460026876456e-06
leaf_weight=298 113 267
leaf_count=298 113 267
internal_value=7.39975e-07 0.000112341
internal_weight=678 380
internal_count=678 380
is_linear=0
shrinkage=0.03


Tree=119
num_leaves=3
num_cat=0
split_feature=0 0
split_gain=0.0108336 0.0101757
threshold=2905.5400000000004 2934.0100000000007
decision_type=2 2
left_child=-1 -2
right_child=1 -3
leaf_value=-0.0001324373738640787 0.00034785688303930835 2.3769501121682666e-06
leaf_weight=298 113 267
leaf_count=298 113 267
internal_value=7.18274e-07 0.000109091
internal_weight=678 380
internal_count=678 380
is_linear=0
shrinkage=0.03


Tree=120
num_leaves=2
num_cat=0
split_feature=1
split_gain=0.0106739
threshold=6.4500000000000011
decision_type=2
left_child=-1
right_child=-2
leaf_value=-5.3466526910729145e-05 0.00031222972615241822
leaf_weight=615 81
leaf_count=615 81
internal_value=-8.73266e-06
internal_weight=696
internal_count=696
is_linear=0
shrinkage=0.03


Tree=121
num_leaves=2
num_cat=0
split_feature=1
split_gain=0.0101486
threshold=4.3500000000000005
decision_type=2
left_child=-1
right_child=-2
leaf_value=-8.6514840872636121e-05 0.00016165390095240843
leaf_weight=483 213
leaf_count=483 213
internal_value=-8.40547e-06
internal_weight=696
internal_count=696
is_linear=0
shrinkage=0.03


end of trees

feature_importances:
distance=147
payload=95
humidity=13
wind_angle=9
temperature=9

parameters:
[boosting: gbdt]
[objective: regression]
[metric: rmse]
[tree_learner: serial]
[device_type: cpu]
[data_sample_strategy: bagging]
[data: ]
[valid: ]
[num_iterations: 2000]
[learning_rate: 0.03]
[num_leaves: 50]
[num_threads: 0]
[seed: 42]
[deterministic: 0]
[force_col_wise: 0]
[force_row_wise: 0]
[histogram_pool_size: -1]
[max_depth: 8]
[min_data_in_leaf: 15]
[min_sum_hessian_in_leaf: 0.01]
[bagging_fraction: 0.85]
[pos_bagging_fraction: 1]
[neg_bagging_fraction: 1]
[bagging_freq: 3]
[bagging_seed: 400]
[bagging_by_query: 0]
[feature_fraction: 0.85]
[feature_fraction_bynode: 1]
[feature_fraction_seed: 30056]
[extra_trees: 0]
[extra_seed: 12879]
[early_stopping_round: 0]
[early_stopping_min_delta: 0]
[first_metric_only: 0]
[max_delta_step: 0]
[lambda_l1: 0.05]
[lambda_l2: 0.05]
[linear_lambda: 0]
[min_gain_to_split: 0.01]
[drop_rate: 0.1]
[max_drop: 50]
[skip_drop: 0.5]
[xgboost_dart_mode: 0]
[uniform_drop: 0]
[drop_seed: 17869]
[top_rate: 0.2]
[other_rate: 0.1]
[min_data_per_group: 100]
[max_cat_threshold: 32]
[cat_l2: 10]
[cat_smooth: 10]
[max_cat_to_onehot: 4]
[top_k: 20]
[monotone_constraints: ]
[monotone_constraints_method: basic]
[monotone_penalty: 0]
[feature_contri: ]
[forcedsplits_filename: ]
[refit_decay_rate: 0.9]
[cegb_tradeoff: 1]
[cegb_penalty_split: 0]
[cegb_penalty_feature_lazy: ]
[cegb_penalty_feature_coupled: ]
[path_smooth: 0]
[interaction_constraints: ]
[verbosity: 0]
[saved_feature_importance_type: 0]
[use_quantized_grad: 0]
[num_grad_quant_bins: 4]
[quant_train_renew_leaf: 0]
[stochastic_rounding: 1]
[linear_tree: 0]
[max_bin: 255]
[max_bin_by_feature: ]
[min_data_in_bin: 3]
[bin_construct_sample_cnt: 200000]
[data_random_seed: 175]
[is_enable_sparse: 1]
[enable_bundle: 1]
[use_missing: 1]
[zero_as_missing: 0]
[feature_pre_filter: 1]
[pre_partition: 0]
[two_round: 0]
[header: 0]
[label_column: ]
[weight_column: ]
[group_column: ]
[ignore_column: ]
[categorical_feature: ]
[forcedbins_filename: ]
[precise_float_parser: 0]
[parser_config_file: ]
[objective_seed: 16083]
[num_class: 1]
[is_unbalance: 0]
[scale_pos_weight: 1]
[sigmoid: 1]
[boost_from_average: 1]
[reg_sqrt: 0]
[alpha: 0.9]
[fair_c: 1]
[poisson_max_delta_step: 0.7]
[tweedie_variance_power: 1.5]
[lambdarank_truncation_level: 30]
[lambdarank_norm: 1]
[label_gain: ]
[lambdarank_position_bias_regularization: 0]
[eval_at: ]
[multi_error_top_k: 1]
[auc_mu_weights: ]
[num_machines: 1]
[local_listen_port: 12400]
[time_out: 120]
[machine_list_filename: ]
[machines: ]
[gpu_platform_id: -1]
[gpu_device_id: -1]
[gpu_use_dp: 0]
[num_gpu: 1]

end of parameters

pandas_categorical:[]
